=== Run information ===

Scheme:       weka.classifiers.trees.J48 -C 0.25 -M 2
Relation:     vote
Instances:    435
Attributes:   17
              handicapped-infants
              water-project-cost-sharing
              adoption-of-the-budget-resolution
              physician-fee-freeze
              el-salvador-aid
              religious-groups-in-schools
              anti-satellite-test-ban
              aid-to-nicaraguan-contras
              mx-missile
              immigration
              synfuels-corporation-cutback
              education-spending
              superfund-right-to-sue
              crime
              duty-free-exports
              export-administration-act-south-africa
              Class
Test mode:    split 66.0% train, remainder test

=== Classifier model (full training set) ===

J48 pruned tree
------------------

physician-fee-freeze = n: democrat (253.41/3.75)
physician-fee-freeze = y
|   synfuels-corporation-cutback = n: republican (145.71/4.0)
|   synfuels-corporation-cutback = y
|   |   mx-missile = n
|   |   |   adoption-of-the-budget-resolution = n: republican (22.61/3.32)
|   |   |   adoption-of-the-budget-resolution = y
|   |   |   |   anti-satellite-test-ban = n: democrat (5.04/0.02)
|   |   |   |   anti-satellite-test-ban = y: republican (2.21)
|   |   mx-missile = y: democrat (6.03/1.03)

Number of Leaves  : 	6

Size of the tree : 	11


Time taken to build model: 0 seconds

=== Evaluation on test split ===

Time taken to test model on test split: 0 seconds

=== Summary ===

Correctly Classified Instances         136               91.8919 %
Incorrectly Classified Instances        12                8.1081 %
Kappa statistic                          0.8309
Mean absolute error                      0.0974
Root mean squared error                  0.2523
Relative absolute error                 20.5046 %
Root relative squared error             51.6796 %
Total Number of Instances              148

=== Detailed Accuracy By Class ===

                 TP Rate  FP Rate  Precision  Recall   F-Measure  MCC      ROC Area  PRC Area  Class
                 0.922    0.086    0.943      0.922    0.933      0.831    0.956     0.972     democrat
                 0.914    0.078    0.883      0.914    0.898      0.831    0.956     0.882     republican
Weighted Avg.    0.919    0.083    0.920      0.919    0.919      0.831    0.956     0.937

=== Confusion Matrix ===

  a  b   <-- classified as
 83  7 |  a = democrat
  5 53 |  b = republican
